{
    "Gene1": {
        "InputLayer": [
            {
                "Weights": [
                    -0.27684253454208374,
                    -0.23022857308387756,
                    0.6400982737541199,
                    0.6502670645713806
                ]
            }
        ],
        "Layer1": {
            "Biases": [
                -0.04227727651596069,
                0.047746241092681885,
                0.630228579044342,
                0.6346293091773987
            ],
            "Weights": [
                0.3026917576789856,
                0.27124547958374023,
                -0.5913907289505005,
                -0.3736594617366791
            ]
        },
        "Score": 0
    },
    "Gene10": {
        "InputLayer": [
            {
                "Weights": [
                    0.3339671492576599,
                    0.09572744369506836,
                    0.6332194209098816,
                    0.6208289265632629
                ]
            }
        ],
        "Layer1": {
            "Biases": [
                0.49025851488113403,
                0.1921170949935913,
                0.6855159401893616,
                -0.36284980177879333
            ],
            "Weights": [
                0.352424681186676,
                0.5308054089546204,
                0.5240973830223083,
                0.11392867565155029
            ]
        },
        "Score": 0
    },
    "Gene2": {
        "InputLayer": [
            {
                "Weights": [
                    0.3818201422691345,
                    0.43881648778915405,
                    -0.1716940999031067,
                    0.10910063982009888
                ]
            }
        ],
        "Layer1": {
            "Biases": [
                -0.02437514066696167,
                -0.43112581968307495,
                0.43715018033981323,
                0.2349284291267395
            ],
            "Weights": [
                0.6261269450187683,
                0.38938266038894653,
                0.04560995101928711,
                -0.10534071922302246
            ]
        },
        "Score": 0
    },
    "Gene3": {
        "InputLayer": [
            {
                "Weights": [
                    0.5483229756355286,
                    -0.31264686584472656,
                    0.28735315799713135,
                    0.5713523030281067
                ]
            }
        ],
        "Layer1": {
            "Biases": [
                0.28987395763397217,
                0.32110661268234253,
                -0.023734211921691895,
                0.475347101688385
            ],
            "Weights": [
                0.160628080368042,
                0.4484725594520569,
                -0.0037385225296020508,
                0.465221107006073
            ]
        },
        "Score": 0
    },
    "Gene4": {
        "InputLayer": [
            {
                "Weights": [
                    -0.3772484362125397,
                    0.12110662460327148,
                    -0.5177739858627319,
                    0.09542834758758545
                ]
            }
        ],
        "Layer1": {
            "Biases": [
                -0.10880154371261597,
                0.006814777851104736,
                0.43800467252731323,
                0.28261053562164307
            ],
            "Weights": [
                0.4701773524284363,
                0.12858366966247559,
                -0.1748557686805725,
                -0.3853236436843872
            ]
        },
        "Score": 0
    },
    "Gene5": {
        "InputLayer": [
            {
                "Weights": [
                    0.6545396447181702,
                    -0.5973296165466309,
                    0.09316384792327881,
                    0.13665884733200073
                ]
            }
        ],
        "Layer1": {
            "Biases": [
                0.10166633129119873,
                -0.2559922933578491,
                0.26163214445114136,
                0.008011102676391602
            ],
            "Weights": [
                0.20143133401870728,
                0.1770775318145752,
                -0.6011749505996704,
                0.20895111560821533
            ]
        },
        "Score": 0
    },
    "Gene6": {
        "InputLayer": [
            {
                "Weights": [
                    0.24326002597808838,
                    0.07342451810836792,
                    -0.02471691370010376,
                    -0.20745566487312317
                ]
            }
        ],
        "Layer1": {
            "Biases": [
                0.03253579139709473,
                0.638517439365387,
                0.33584707975387573,
                0.28252512216567993
            ],
            "Weights": [
                -0.4270668625831604,
                0.4593248963356018,
                -0.4062166213989258,
                -0.473638117313385
            ]
        },
        "Score": 0
    },
    "Gene7": {
        "InputLayer": [
            {
                "Weights": [
                    0.19758599996566772,
                    0.3026062846183777,
                    0.1354197859764099,
                    0.39771419763565063
                ]
            }
        ],
        "Layer1": {
            "Biases": [
                -0.21104463934898376,
                0.07436448335647583,
                -0.33520615100860596,
                0.4596239924430847
            ],
            "Weights": [
                0.41523176431655884,
                -0.02967315912246704,
                0.6497543454170227,
                0.6852595210075378
            ]
        },
        "Score": 0
    },
    "Gene8": {
        "InputLayer": [
            {
                "Weights": [
                    -0.5680196285247803,
                    0.5211066603660583,
                    0.056804120540618896,
                    0.4747917056083679
                ]
            }
        ],
        "Layer1": {
            "Biases": [
                -0.5230292677879333,
                0.629673182964325,
                -0.3447340130805969,
                0.45124977827072144
            ],
            "Weights": [
                0.143324077129364,
                -0.36199527978897095,
                0.44872885942459106,
                -0.39327067136764526
            ]
        },
        "Score": 0
    },
    "Gene9": {
        "InputLayer": [
            {
                "Weights": [
                    -0.5156376361846924,
                    -0.004977583885192871,
                    -0.5968596339225769,
                    -0.45274513959884644
                ]
            }
        ],
        "Layer1": {
            "Biases": [
                -0.42997220158576965,
                0.42198246717453003,
                -0.5182867050170898,
                0.663341224193573
            ],
            "Weights": [
                -0.25688955187797546,
                -0.3507583737373352,
                -0.4982909560203552,
                0.1448194980621338
            ]
        },
        "Score": 0
    }
}